#ifndef MODEL
#define MODEL

const float w0[126] = {
    -0.34186631441116333,
    -0.5674694776535034,
    -0.7285093069076538,
    -0.2392118275165558,
    -0.8585496544837952,
    -0.6340191960334778,
    1.0347248315811157,
    0.047521594911813736,
    -0.1186690405011177,
    -0.05361250042915344,
    -1.1756147146224976,
    0.612635612487793,
    -0.9945324063301086,
    0.5990385413169861,
    0.7822365164756775,
    -0.833344042301178,
    0.8124799132347107,
    0.8271585702896118,
    -0.5162633657455444,
    -0.7642896771430969,
    0.6240062117576599,
    -0.09506650269031525,
    0.5668675303459167,
    0.12437442690134048,
    0.678503155708313,
    -0.11921790987253189,
    1.2274079322814941,
    1.308289647102356,
    0.9446510076522827,
    -1.1144416332244873,
    -0.6054512858390808,
    0.15687981247901917,
    0.7174476385116577,
    -1.569490909576416,
    -1.5499193668365479,
    -1.022851586341858,
    -0.2894198000431061,
    0.7309110164642334,
    0.33548736572265625,
    0.6404547691345215,
    -1.8193198442459106,
    1.0576223134994507,
    0.010254300199449062,
    0.9172794222831726,
    1.0956422090530396,
    -0.2360355108976364,
    -0.7946560978889465,
    -0.02095566689968109,
    -0.8047646284103394,
    -1.6844381093978882,
    -0.06025119870901108,
    -0.49724656343460083,
    -0.5868630409240723,
    -1.3362936973571777,
    -0.08569510281085968,
    0.43192681670188904,
    -1.0053164958953857,
    1.0232750177383423,
    -0.4336155652999878,
    -1.0683526992797852,
    -0.44583168625831604,
    0.23590508103370667,
    0.5302577614784241,
    0.07047190517187119,
    0.6667158007621765,
    -0.5326471924781799,
    -0.21536071598529816,
    0.28737306594848633,
    -0.5526031255722046,
    -0.2150871753692627,
    0.4903933107852936,
    -0.28156545758247375,
    -0.24229145050048828,
    1.2404308319091797,
    0.017261220142245293,
    1.1250133514404297,
    -0.7789487242698669,
    -0.06931591033935547,
    0.18393093347549438,
    0.09977827966213226,
    -0.014225196093320847,
    -0.14148756861686707,
    -1.0624821186065674,
    1.2387192249298096,
    1.1335723400115967,
    0.49620887637138367,
    -0.8284438252449036,
    0.04017592594027519,
    -1.1293278932571411,
    -0.8846769332885742,
    -0.5455195903778076,
    0.4251573085784912,
    0.011479830369353294,
    -0.27315884828567505,
    -0.35991719365119934,
    0.08403725922107697,
    0.1477164775133133,
    -0.3372836709022522,
    0.1730962097644806,
    0.4925612807273865,
    -0.14883507788181305,
    0.20496560633182526,
    0.0938275009393692,
    0.8846563696861267,
    0.1831582635641098,
    0.6921245455741882,
    0.32406172156333923,
    0.5897678732872009,
    0.9628177881240845,
    0.46984779834747314,
    -0.051247596740722656,
    0.1632266789674759,
    0.11707557737827301,
    -0.3154199421405792,
    1.011113166809082,
    0.7573938369750977,
    0.06982996314764023,
    0.333505779504776,
    -0.19801953434944153,
    -0.08892551064491272,
    -0.513802170753479,
    -0.29908162355422974,
    0.05822369083762169,
    0.6031184792518616,
    0.2586282789707184,
    0.18717060983181};

const float b0[18] = {
    0.09597853571176529,
    0.7215455770492554,
    0.5003476142883301,
    0.35567599534988403,
    0.7032635807991028,
    0.49268415570259094,
    0.4219643175601959,
    0.9944332838058472,
    0.7412829399108887,
    1.2390552759170532,
    0.754987359046936,
    0.388872355222702,
    0.7949029207229614,
    0.6832932829856873,
    0.5213512182235718,
    0.5479158759117126,
    0.1577153205871582,
    0.17678676545619965};

const float w1[162] = {
    -1.0165611505508423,
    0.03132294863462448,
    0.09280277788639069,
    0.005905545316636562,
    0.335744172334671,
    1.000367522239685,
    0.2364291399717331,
    0.17844010889530182,
    -0.2521341145038605,
    0.34209510684013367,
    0.06734790652990341,
    1.4640707969665527,
    0.38424554467201233,
    0.3493936061859131,
    0.25514861941337585,
    -0.27248847484588623,
    -0.4729975461959839,
    -0.032586414366960526,
    0.8520870208740234,
    0.10035964846611023,
    0.45419493317604065,
    -0.23273001611232758,
    -0.10899139940738678,
    -0.24314817786216736,
    -0.534469485282898,
    0.5959952473640442,
    0.7886452674865723,
    0.6708877086639404,
    -0.4263964295387268,
    0.9500255584716797,
    0.549024224281311,
    0.12140859663486481,
    0.5774645209312439,
    0.6170825958251953,
    -0.055149685591459274,
    -0.5450406670570374,
    0.7540880441665649,
    0.777955949306488,
    -0.2316013127565384,
    0.6348922848701477,
    -0.037072572857141495,
    0.599875271320343,
    0.2772114872932434,
    0.7684494853019714,
    1.1930639743804932,
    0.456140398979187,
    -0.03029765374958515,
    0.2938357889652252,
    -0.5004004836082458,
    -0.2505721151828766,
    -0.6548330187797546,
    -0.988531768321991,
    0.8572950959205627,
    -0.1529783308506012,
    -0.738082230091095,
    0.7835018634796143,
    0.7931603193283081,
    -0.8294327259063721,
    -0.13494667410850525,
    -0.020552046597003937,
    -0.7210644483566284,
    0.9545136094093323,
    -0.4685349762439728,
    0.785901665687561,
    0.39126917719841003,
    0.7596518993377686,
    0.033829979598522186,
    0.14120636880397797,
    0.9875520467758179,
    0.007415033411234617,
    0.9641379714012146,
    -0.6263883113861084,
    0.927470862865448,
    -1.0800296068191528,
    0.5393625497817993,
    0.12470366805791855,
    -0.511381983757019,
    -0.43834176659584045,
    -0.16138868033885956,
    0.7014853954315186,
    -0.7445595264434814,
    0.1758476346731186,
    -1.0853742361068726,
    0.1628800332546234,
    0.24982665479183197,
    0.7573011517524719,
    0.4936944842338562,
    -1.0594974756240845,
    1.431728482246399,
    0.45086443424224854,
    0.6621237993240356,
    0.1866343468427658,
    -0.5811256766319275,
    0.17029869556427002,
    -0.013046122156083584,
    0.49312078952789307,
    0.48645347356796265,
    0.9625157713890076,
    0.935123860836029,
    0.3259170353412628,
    1.1430367231369019,
    0.7990304231643677,
    -0.208159402012825,
    0.9311567544937134,
    -0.44631099700927734,
    0.2694830894470215,
    -0.399739146232605,
    -0.30845150351524353,
    -0.5097412467002869,
    -0.4055441915988922,
    1.1478279829025269,
    1.060813069343567,
    0.8901305198669434,
    -0.021363724023103714,
    0.3855464458465576,
    -0.47201406955718994,
    0.3820757269859314,
    0.6420359015464783,
    0.7458006739616394,
    -0.19119641184806824,
    0.8149620294570923,
    1.3842427730560303,
    -0.1086316630244255,
    0.48259565234184265,
    0.887922465801239,
    0.5284922122955322,
    -0.8266236186027527,
    -0.3982492983341217,
    -0.3814651072025299,
    -0.6429591774940491,
    -0.1806839257478714,
    -0.46797430515289307,
    -0.40205517411231995,
    1.281388521194458,
    0.2236960381269455,
    -0.7711536884307861,
    0.43561381101608276,
    0.6583383083343506,
    0.7723032832145691,
    -0.40692564845085144,
    0.6486757397651672,
    0.25388532876968384,
    -0.4425297975540161,
    0.40753790736198425,
    0.4554727375507355,
    1.0482310056686401,
    -0.35362938046455383,
    -0.8172852993011475,
    -0.5209453105926514,
    0.4319835305213928,
    1.1538268327713013,
    -0.23444128036499023,
    -0.7571939826011658,
    -0.340563029050827,
    1.2844990491867065,
    -0.621732771396637,
    -0.43497219681739807,
    -0.43280598521232605,
    0.03658520430326462,
    0.8017407655715942,
    0.531361997127533,
    0.24721984565258026};

const float b1[9] = {
    0.03999541327357292,
    0.006107940338551998,
    0.4014684855937958,
    0.2952876687049866,
    0.7459181547164917,
    0.4173198640346527,
    0.0011311194393783808,
    0.6247174143791199,
    0.23308873176574707};

const float w2[198] = {
    -1.3180378675460815,
    -1.5322670936584473,
    -0.010579707100987434,
    0.3313206434249878,
    0.45281344652175903,
    -0.15353477001190186,
    -0.17141085863113403,
    0.04328093305230141,
    -0.18061228096485138,
    -0.8395503759384155,
    -1.110854148864746,
    -0.32396820187568665,
    0.17460481822490692,
    -1.0399394035339355,
    0.7040829062461853,
    0.6655513644218445,
    -0.4032759666442871,
    0.04300013184547424,
    -1.1100184917449951,
    -0.9773059487342834,
    -0.3246678113937378,
    -0.6533367037773132,
    0.09806276112794876,
    0.28890663385391235,
    -0.8609158992767334,
    0.27729615569114685,
    -0.44066953659057617,
    0.22942903637886047,
    -0.817724883556366,
    -0.23262785375118256,
    -0.3902948796749115,
    -0.380942165851593,
    -0.986425518989563,
    0.059985965490341187,
    -0.8635176420211792,
    0.7279625535011292,
    0.19794918596744537,
    -0.39407479763031006,
    0.10881463438272476,
    -0.6863862872123718,
    -1.0163170099258423,
    0.7181868553161621,
    0.2716360092163086,
    0.5229145288467407,
    0.5618628263473511,
    -0.7590693235397339,
    -1.1034669876098633,
    -0.3922780454158783,
    -0.7263029217720032,
    -0.8613996505737305,
    0.02646838314831257,
    -0.781121015548706,
    -0.3416876196861267,
    0.8623483180999756,
    0.5369033813476562,
    -0.3572039008140564,
    -0.026485664770007133,
    0.505730926990509,
    0.20036651194095612,
    0.2084352970123291,
    0.28643912076950073,
    0.6024097800254822,
    0.47689488530158997,
    -0.7277684807777405,
    -0.07548145949840546,
    -1.3365659713745117,
    -0.9313091039657593,
    -0.9925411939620972,
    -1.050526738166809,
    -1.0689376592636108,
    -0.19172120094299316,
    0.4233818054199219,
    0.3715418875217438,
    0.2251274138689041,
    0.2497686892747879,
    0.28847116231918335,
    -0.4615938365459442,
    -0.0057854545302689075,
    0.4467371106147766,
    -0.7818777561187744,
    -0.655305027961731,
    -1.018994927406311,
    0.31349581480026245,
    0.3856678307056427,
    0.6267362236976624,
    -0.9809630513191223,
    -0.08677680790424347,
    -1.1397589445114136,
    -0.04733767732977867,
    -0.4742627441883087,
    -1.2012932300567627,
    -1.7076432704925537,
    -0.5523295998573303,
    -0.23736996948719025,
    0.23131097853183746,
    0.42962372303009033,
    0.2304825335741043,
    0.2811189889907837,
    -0.7202916741371155,
    -0.8435627818107605,
    -1.846514105796814,
    -0.6645186543464661,
    0.21078573167324066,
    -0.6691339612007141,
    0.22382600605487823,
    -0.062281809747219086,
    0.0909585952758789,
    0.31267106533050537,
    0.7434166669845581,
    -0.6609188318252563,
    0.4392808675765991,
    0.405876487493515,
    -1.4416786432266235,
    -0.6438801884651184,
    -0.22605404257774353,
    -0.011114477179944515,
    -0.1563408225774765,
    -0.2365279346704483,
    -0.6435077786445618,
    -0.9385937452316284,
    -0.20868147909641266,
    0.7253044843673706,
    0.02724313549697399,
    0.07691683620214462,
    -0.021522948518395424,
    -0.9309113621711731,
    -0.9632784724235535,
    -0.1594671607017517,
    0.2770359516143799,
    -1.308225154876709,
    -0.3394086956977844,
    -0.4825098216533661,
    -1.6150895357131958,
    -0.27458569407463074,
    -0.7895634770393372,
    -0.38563135266304016,
    0.11472955346107483,
    0.19655996561050415,
    0.21985413134098053,
    -0.292418509721756,
    -0.9098079800605774,
    -0.6315139532089233,
    -0.7857533693313599,
    0.5919679403305054,
    -0.9340708255767822,
    -0.21270525455474854,
    0.30406680703163147,
    -0.48235899209976196,
    0.35696840286254883,
    -0.8373523354530334,
    0.13057896494865417,
    -0.22032158076763153,
    -0.6583135724067688,
    1.0361498594284058,
    -0.04343203455209732,
    0.43607720732688904,
    0.8301329612731934,
    0.08857846260070801,
    0.13975976407527924,
    -0.08712147176265717,
    -0.756921648979187,
    0.10436080396175385,
    -0.06964578479528427,
    -1.1920979022979736,
    0.6876760721206665,
    -0.3564099371433258,
    0.5350291132926941,
    -0.6851769089698792,
    -1.0866103172302246,
    0.04516544193029404,
    -1.083139419555664,
    -0.25328096747398376,
    -1.2325764894485474,
    0.17694894969463348,
    -0.07152163982391357,
    0.0858335942029953,
    -1.0252251625061035,
    -0.13991592824459076,
    -0.03207244724035263,
    0.6696617603302002,
    0.29631632566452026,
    0.11827784031629562,
    0.5024769306182861,
    -0.05960337072610855,
    0.7090503573417664,
    -0.4571276307106018,
    -0.5241463780403137,
    -0.3864089548587799,
    -0.800053060054779,
    -0.581980288028717,
    -0.909774124622345,
    -0.559158980846405,
    0.1641901433467865,
    -1.5181362628936768,
    -1.5194801092147827,
    -0.8692580461502075,
    -0.812532365322113,
    -0.7672383785247803};

const float b2[22] = {
    0.014827434904873371,
    0.4711703360080719,
    0.1550413966178894,
    -0.195052832365036,
    -0.25123825669288635,
    -0.2398422360420227,
    -0.05319016054272652,
    0.1186349168419838,
    -0.05212477222084999,
    0.03140817955136299,
    0.4053657352924347,
    -0.2551717162132263,
    -0.267370343208313,
    -0.1993618905544281,
    -0.0419081375002861,
    -0.2896477282047272,
    -0.5681411623954773,
    0.0499921590089798,
    -0.036940835416316986,
    0.05869501084089279,
    0.5066056251525879,
    0.4258086383342743};

const float M[7] = {
    50.68636363636364,
    53.40965909090909,
    48.13636363636363,
    25.579639823035794,
    71.55999728546591,
    6.4759398213534105,
    73.20227272727273};

const float S[7] = {
    37.28732779,
    33.21872791,
    51.06361492,
    5.08862327,
    22.01775167,
    0.77322534,
    8.44864133};

#endif